{
  "framework": "python_fallback_linear",
  "question_dim": 64,
  "candidate_dim": 384,
  "input_dim": 448,
  "weights": [
    0.0,
    0.0,
    0.0,
    0.0,
    0.0,
    0.0,
    0.0,
    0.0,
    0.0,
    0.0,
    0.0,
    0.0,
    0.0,
    0.0,
    0.0,
    0.0,
    0.0,
    0.0,
    0.0,
    0.0,
    0.0,
    0.0,
    0.0,
    0.0,
    0.0,
    0.0,
    0.0,
    0.0,
    0.0,
    0.0,
    0.0,
    0.09276233222458692,
    0.0,
    0.0,
    0.0,
    0.0,
    0.0,
    0.0,
    -0.09276233222458692,
    0.0,
    0.0,
    0.0,
    0.0,
    0.0,
    0.09276233222458692,
    -0.09276233222458692,
    0.0,
    0.0,
    0.0,
    0.0,
    0.0,
    0.0,
    -0.09276233222458692,
    0.0,
    0.0,
    0.0,
    0.0,
    0.0,
    0.0,
    0.0,
    0.0,
    0.0,
    0.0,
    0.0,
    0.022290662258414154,
    0.002653506848430946,
    -0.0022960558489323246,
    -0.0052873660904974255,
    0.007118606779075683,
    0.0022556844765720565,
    0.008759842608919112,
    -0.011631104927465028,
    0.012262744907784113,
    0.01732904695683942,
    -0.0035461665109047425,
    -0.009802723039437744,
    -0.0010872243058954192,
    0.004732910424342342,
    -0.012450662127565834,
    -0.01365175851284971,
    -0.002601591638816532,
    -0.015328085430414458,
    -0.0005283189039398169,
    0.013615965710424713,
    -0.011777245850268188,
    0.002353736676998659,
    -0.010901397052375687,
    -0.015692229930489826,
    -0.009752031808880617,
    0.004343258690863754,
    -0.002297357117275651,
    -0.007022248708279041,
    0.00016049155657091996,
    0.0042578784488903725,
    -0.0034537313222320993,
    -0.010622255708666293,
    -0.008564081279679905,
    0.008535196209105644,
    -0.01573562977616177,
    -0.008141292066446927,
    -0.0003990333169361654,
    0.0038028694452249805,
    -0.004803465395503064,
    0.01340025877691724,
    -0.018187624331565816,
    -0.00047752556008795005,
    -0.01140809567512878,
    0.0015707956998037074,
    -0.00782754144658294,
    0.001832050362354498,
    -0.016676762742485873,
    -0.011824049535771583,
    0.0019378868243920548,
    -0.0015311312028098113,
    -0.029325508646521687,
    -0.005943501051220679,
    -0.002464915890326278,
    -0.002915749463207005,
    0.0009036080215037944,
    -0.006956378126885198,
    0.015213140590587251,
    -0.0008374164141508036,
    -0.003479884659880181,
    0.004132235044208046,
    0.01802648211325891,
    -0.007367749453113507,
    0.005051560774442517,
    0.004976054570992288,
    -0.012463735304914536,
    0.014615293945463858,
    -0.015881577316977438,
    -0.017792802467760313,
    -0.00973843459388957,
    -0.008582929989998324,
    -0.007207268658848368,
    0.0017393949078104696,
    0.0022098597911739807,
    -0.02194563607060486,
    0.002730349070716929,
    -0.024996352038700004,
    0.0030436058662438857,
    -0.008265883653666688,
    0.009233689934171651,
    0.007869551173282799,
    -0.0009166947351759262,
    0.025007349590335355,
    -0.014060002067183565,
    0.006399179036174802,
    -0.0014011035863618322,
    0.00568181657516676,
    0.00022237332241478952,
    0.004335833520596256,
    -0.017591145745108203,
    0.00014350133434943603,
    -0.006020237662510149,
    0.011850601595006458,
    -0.008893393654643169,
    0.00037201669930000557,
    0.003885552924889313,
    0.007479950939303062,
    0.004463292048392771,
    -0.0038192118037423768,
    0.0007453128153645308,
    0.007886364721204601,
    0.002571857279934056,
    0.01220219968161413,
    -7.142905790926812e-05,
    -0.0009531035419530092,
    -0.024102958966727896,
    -0.006994073820412642,
    -0.0013119775981304612,
    0.0020296305424063812,
    0.009711716542971064,
    -0.01185499217483887,
    -0.016864764753601075,
    0.004269659842545645,
    -0.008538639683286792,
    0.006857100273722992,
    -0.009948665722091885,
    -0.0006478555981045322,
    0.007224143457268922,
    -0.011238171606836263,
    0.016509387211385503,
    -0.011916067782868679,
    0.016567298473003676,
    0.01120642596641889,
    0.006841179208543725,
    0.020947533926872094,
    0.0029180876060853423,
    0.0004213119256669445,
    -0.001248417430034413,
    -1.31679594888723e-33,
    0.0022618634368272023,
    -0.009449966376194665,
    0.004328847533478994,
    0.0027450255037279915,
    0.030627386458849964,
    0.0009410005439842456,
    0.0009246774269001251,
    0.01875994722723038,
    0.0021999042322107397,
    0.0013511359121850053,
    0.007775434848993068,
    -0.014671617330993916,
    0.003069965389093962,
    -0.015357111624823132,
    0.011886686936555334,
    -0.002213982226619327,
    0.0003081447209033249,
    0.02042518867968249,
    -0.011355211452994741,
    0.005889658962211164,
    -0.02193966246095495,
    0.006877803927631301,
    0.009270200573689484,
    -0.0031077493843402453,
    -0.0065320643565725265,
    0.01237425211983377,
    0.00042606473232430155,
    -0.004739764305494126,
    -0.005759847567795244,
    -0.0008269414010359306,
    -0.00755123030023167,
    0.0084175165521383,
    -0.00016113242624371136,
    -0.0013743013814639196,
    -0.019745671859909136,
    -0.005181769035372601,
    0.00087954824108708,
    0.006937694917772427,
    0.010623746681372158,
    -0.0056823224319807655,
    -0.01621205845632852,
    0.015018297805594648,
    0.007344268454146749,
    0.00429710299896457,
    -0.0038144943403501173,
    0.01241290511678722,
    0.007046455908940145,
    0.013439880700749812,
    -0.010676024932533484,
    6.67313844078879e-05,
    -0.0028893939168113986,
    0.004455870258259359,
    -0.004640965439323952,
    -0.00140340377202926,
    -0.016357150273068135,
    0.003133509418246889,
    0.001026733735503264,
    0.0029962943703520494,
    -0.0005784801600308602,
    -0.007882098932262363,
    0.01291515175275819,
    -0.008573626305289257,
    0.008528212812648765,
    -0.014618824831617395,
    0.0012643006008158002,
    -0.0038813104008073203,
    -0.0030614963909287654,
    -0.006705094731825101,
    0.020454603783771445,
    0.00808350830787223,
    -0.010644007288351413,
    0.01007706121591852,
    0.00991376627720856,
    0.005028065940126213,
    0.0016680770393877973,
    0.00014289989426652535,
    0.00021041051038800038,
    0.002545665803053436,
    0.0024770727447031415,
    -0.0016521363080562335,
    0.007249953576838928,
    0.008846220654757134,
    -0.0020535111463827714,
    -0.012941892628683983,
    -0.01251097532142541,
    -0.008551979582234354,
    -0.000767765540790562,
    0.0006476766906504123,
    -0.0178187435843832,
    -0.0031642496379566025,
    -0.021724492683439005,
    -0.002381050495109112,
    -0.00740609057069402,
    -0.007671424022076143,
    -0.006478074770546976,
    3.7401500757712363e-34,
    0.012695918490389528,
    -0.020694285727858443,
    -0.016419727781547103,
    -0.011694014451427488,
    0.005698354779326967,
    -0.0023511057880317996,
    -0.004820350424699334,
    -0.004726470054413314,
    -0.017356995963578294,
    0.007339271048616628,
    0.008682384249457784,
    0.005540589461461786,
    0.01259949159192898,
    -0.0018271300970033762,
    0.006711972549422806,
    0.018578833788441284,
    0.021128721217191528,
    -0.00014552546090841416,
    -0.007099608631571877,
    -0.006311795895039407,
    0.018231878805224862,
    -0.00838561432509172,
    0.0016834645743406258,
    0.009260841209828216,
    0.00505565216415424,
    0.012412954841173492,
    0.009201655701512598,
    -0.003113856286579646,
    -0.012902720421283834,
    -0.0032470908515325426,
    -0.010317231536447695,
    -0.01907635745008276,
    -0.000914133164337565,
    0.0024373595224418164,
    0.008576874450209567,
    0.004080232712755881,
    0.0019429474058275645,
    -0.02552114755042631,
    -0.009462636717852017,
    -0.0014947758514326955,
    0.008717156582000302,
    0.0046124609988648976,
    0.014907238628268364,
    0.018381075571423967,
    0.00456174468895142,
    8.856864845652819e-05,
    -0.013976866728872321,
    0.00605390947471323,
    -0.0072269139628216164,
    0.00013258259679639964,
    0.00484665569452209,
    -0.005592577130778051,
    0.0026049885261011352,
    -0.00020530248913726463,
    0.0010378403241248983,
    0.01678677476043275,
    -0.006330227780989009,
    0.008353957351681247,
    0.00772458220286509,
    0.006992745286206363,
    0.0023316565321417184,
    0.02438074948089631,
    -0.009605024119635697,
    -0.0008673348164640834,
    -0.0035034142778641733,
    0.013771392913236358,
    -0.012737493872040413,
    -0.0030399559809149448,
    -0.0016406890476286392,
    -0.0024087534715935923,
    0.009293818798959437,
    -0.00048177382230186615,
    -0.0013483662487370233,
    0.0063007074414804295,
    -0.006355521994982841,
    0.00399741356294415,
    0.027554229509476263,
    -0.001899619768499004,
    -0.004102559419848491,
    0.01746348419947289,
    0.006751415677159578,
    9.028521147129388e-05,
    0.01720509939058633,
    -0.011037045492880915,
    0.004414987203963798,
    -0.011338397024596372,
    0.001025758866352392,
    -0.0008677254721376018,
    -0.010932738935780586,
    0.005730830774566577,
    -0.01564601972554351,
    0.022042447074793,
    -0.017054145422244222,
    -0.007029495096176763,
    0.008521872463439986,
    -4.185632368621147e-09,
    -0.015556539583238826,
    -0.01836873444618255,
    -0.002257280131541283,
    -0.01237242361146817,
    -0.01931631508926187,
    -0.0216507513454719,
    0.007769846783397661,
    -0.0007936387548640345,
    -0.013002303392276131,
    -0.02372132086852165,
    0.0053339389840277186,
    -0.01420365797204149,
    0.0027552018220485604,
    0.019681610593517845,
    0.0007961584840727931,
    0.0056747790118195475,
    -0.001785434799306131,
    0.00017624094677420497,
    0.0017699832942785914,
    0.001605815317623718,
    0.001264377441663878,
    -0.00867242530558488,
    0.002422126218259452,
    -0.0008927954660429008,
    -0.004431256726763426,
    -0.009020150630317839,
    -0.010235338622011193,
    -0.002814119190459789,
    -0.003218313572280791,
    0.00012285457277042867,
    0.001130494950696689,
    0.011750398899640732,
    0.0029970161178293287,
    -0.0004105603487692456,
    0.0077622870053223915,
    0.015889416624295855,
    -0.01214347927869103,
    -0.007435909694435366,
    -0.003871462412555243,
    -0.006380785174065951,
    -0.005230623085381463,
    -0.017747538952556766,
    -0.004430128783498333,
    0.006018529510900227,
    0.02196075673194951,
    0.005479802022363322,
    -0.0034672346526672844,
    -0.002743053382130344,
    0.0007977695228506545,
    0.002387733925850329,
    0.00553021159536504,
    0.009051793999456433,
    0.01433182850408568,
    0.009414336036507688,
    -0.013131620306005856,
    -0.0017395472503778332,
    0.013773636328815423,
    0.0031190288502319407,
    0.008633401216808174,
    0.0082020670136387,
    0.0057453644537988026,
    0.022014415380816207,
    0.0019625593533978284,
    0.02008889589107837
  ],
  "bias": 0.20742288060559572
}