{
  "framework": "python_fallback_linear",
  "question_dim": 64,
  "frame_dim": 384,
  "input_dim": 448,
  "weights": [
    0.0,
    0.0,
    0.0,
    0.0,
    0.0,
    0.0,
    0.0,
    0.0,
    0.0,
    0.0,
    0.0,
    0.0,
    0.0,
    0.0,
    0.0,
    0.0,
    0.0,
    0.0,
    0.0,
    0.0,
    0.0,
    0.0,
    0.0,
    0.0,
    0.0,
    0.0,
    0.0,
    0.0,
    0.0,
    0.0,
    0.0,
    0.1791033214631825,
    0.0,
    0.0,
    0.0,
    0.0,
    0.0,
    0.0,
    -0.24141652005579495,
    0.0,
    -0.062313198592612445,
    0.0,
    0.0,
    0.0,
    0.1791033214631825,
    -0.24141652005579495,
    0.0,
    -0.062313198592612445,
    0.0,
    0.0,
    0.0,
    0.0,
    -0.1791033214631825,
    0.0,
    0.0,
    0.0,
    0.0,
    0.0,
    0.0,
    0.0,
    0.0,
    0.0,
    0.0,
    0.0,
    0.03886357362361921,
    0.004267927784026552,
    -0.00729095461025179,
    0.01666781457211292,
    -0.014188063059160214,
    0.012264596968444471,
    0.005600821627765568,
    -0.029178108127793596,
    0.018086148909020466,
    0.02105508353031142,
    -0.0006791193229485169,
    -0.04118757098992097,
    0.01423441053462697,
    0.017365432114874655,
    -0.007704362801392701,
    -0.03385210784077695,
    0.001719985404391045,
    -0.011096017393187715,
    0.012272600431327605,
    0.01177813924917639,
    -0.02276102539685008,
    0.016814006337619782,
    0.006182836765344958,
    -0.02601563602432159,
    0.002276648420315206,
    0.014605249307370245,
    -0.005116733215281217,
    -0.003909505883948061,
    -0.0008792431799765868,
    -0.00808607833907341,
    0.03439069985045554,
    -0.017379949397597898,
    -0.0018399236730341397,
    0.011036128845035503,
    -0.013758395005058675,
    -0.01650439614865635,
    0.0018361414039223672,
    -0.0007628671695075273,
    0.004642838686950858,
    0.017796663527310828,
    -0.03041142341630577,
    -0.010251070795809097,
    0.011626326807096117,
    0.005527554729076903,
    7.340629732729959e-06,
    0.01144573358749508,
    -0.02032871530850745,
    -0.022053268402858157,
    0.01436917109271097,
    -0.020196660323518478,
    -0.020392054539340634,
    0.010839006181816192,
    -0.01777181786785314,
    0.02286637117135978,
    0.012488862229052477,
    0.018543076666445283,
    0.006758631728743738,
    -0.01603445407449749,
    0.007412937578636199,
    -0.009495895407349261,
    0.018101918036478305,
    0.00357319855552825,
    0.011197419366251798,
    0.015412499356269243,
    -0.008248015198263278,
    0.02855960944506642,
    -0.03532310383027049,
    -0.002288930331749341,
    -0.016984252730363386,
    -0.021535232700253433,
    -0.011090484743795547,
    -0.001112234470705917,
    0.017772129518424946,
    -0.005231074526647703,
    0.0177663986865851,
    -0.03352818287761031,
    -0.008413591973190885,
    -0.020719919655750756,
    0.009696185528612948,
    0.003682665744575842,
    -0.023060076484987434,
    0.011829736208164389,
    -0.011373970405697974,
    0.008691287483071478,
    -0.0263569687845698,
    0.0009341049647907109,
    0.001206332369133075,
    0.006200935008311888,
    -0.034630559772802064,
    -0.02326628052507266,
    0.0017869518476654987,
    0.014105346601907428,
    -0.008229745098313644,
    -0.011362314454587272,
    0.006726038502896933,
    0.02824970645784479,
    0.0008282593594997617,
    0.005210893904483922,
    0.01902826789707955,
    0.02320148376893662,
    -0.01227527425913514,
    0.013640419138841096,
    0.026677069097284074,
    0.022390042151415008,
    -0.03567835635020075,
    -0.02733255872040066,
    0.0115987660583639,
    0.009419806033228449,
    0.0013901498670374603,
    -0.030964074880600014,
    -0.02004375884301429,
    0.0007053697362598679,
    -0.036288816633641176,
    0.00785227592020438,
    -0.009069591854994178,
    -0.014282204327016941,
    0.0403317745471317,
    -0.021618717804504743,
    0.022123052592802443,
    -0.014247004587566886,
    0.025400416727090244,
    0.010602023287624005,
    0.017883381274623265,
    0.03261211644588624,
    -0.008951434671507072,
    0.012033289604354708,
    0.013991703136365703,
    -3.2387135406752194e-33,
    0.012420677456792567,
    -0.019685912673362945,
    0.007372044151149302,
    0.015016895379889579,
    0.07665523282492297,
    0.00536983722112258,
    -0.005080275577818472,
    0.03640506818419273,
    0.011298205468656116,
    0.021558506413271627,
    0.015156301154170042,
    -0.018643220584807375,
    -0.021656294270698657,
    0.008366910623334695,
    0.021910479578689253,
    0.0099784523804514,
    0.006989674611092792,
    0.03338887312266663,
    -0.020852501012526455,
    0.009307354021014007,
    -0.024195066592135262,
    0.02499484862708494,
    0.017127602804716247,
    0.023709107533324964,
    -0.012827843955737687,
    0.0030502676296386404,
    0.002505788436257229,
    -0.004642933765760336,
    -0.012678169354456731,
    -0.0005332257395279448,
    -0.007421514416310895,
    0.010477144271059223,
    -0.010487504557830245,
    -0.017596812211922754,
    -0.03244111190328543,
    -0.011402767017447529,
    -0.016813909760899574,
    0.012176405041658277,
    0.01282144501557072,
    -0.007499954390899539,
    -0.025977362289068804,
    0.016203502955567214,
    0.006618749997119544,
    -0.0031062526815811647,
    -0.003512067534098111,
    0.029228411799533015,
    0.02003185391388031,
    0.021197836898282377,
    -0.009306328842461471,
    0.01962977691190045,
    -0.007838465424848966,
    -0.0020102478709228227,
    -0.027272115610312377,
    0.02709813102045779,
    -0.02741784880205165,
    -0.009964486997258519,
    -0.0017590346588670343,
    -0.002858853667384252,
    0.03692220943471056,
    0.007071285066288306,
    0.016933081748083882,
    0.02330029115041405,
    -0.014321375993016848,
    -0.004794405619097994,
    0.00870767949101629,
    -0.002493090001277464,
    0.005328778804121506,
    -0.008280229493862253,
    0.03813725412150751,
    0.00033943718230719337,
    -0.02017919456538503,
    -0.006917716777071683,
    0.02258608025572011,
    0.00937577186835015,
    0.005061853733686968,
    0.0010752566231919398,
    -0.024670039509425003,
    -0.02413267402966847,
    -0.03415712354533825,
    -0.006558778141625902,
    0.00769113143147728,
    0.005167324413600954,
    -0.002740621527999236,
    0.014187494487676693,
    -0.007975750206052888,
    0.0030785589155657407,
    -0.009450618708437738,
    -0.0030607872579581645,
    -0.03134445697909418,
    0.00014998769437845217,
    -0.04177380695128042,
    0.0027551019494883875,
    -0.007412455052473284,
    -0.008453044724646181,
    -0.011363188628877434,
    1.2126212524280057e-33,
    0.03091150500111845,
    -0.023885555636127792,
    -0.04553602839579488,
    0.011738894100610004,
    0.024262649352095357,
    -0.00220019248321427,
    -0.01635609001662889,
    -0.02102534843179511,
    -0.02086973706255521,
    0.022544625008044644,
    0.014389876357202956,
    -0.0019658742059730895,
    0.038838851573892455,
    -0.0020980589857919896,
    0.01031920943607146,
    0.03473233216646869,
    0.04626048257066304,
    -0.001836119165608471,
    -0.0036730976749564663,
    0.0199983861571043,
    0.023216538356087904,
    0.009806500515829892,
    -0.00904143000373206,
    0.001828612051622407,
    -0.011455454383613627,
    0.02204099741312333,
    0.004300604130040918,
    0.003971279574070614,
    -0.06022508238992805,
    0.0017267292304233202,
    -0.04441092601878088,
    -0.02744691632532624,
    0.011335121791725081,
    0.008193459658669232,
    0.012951389594121994,
    -0.015786736282186232,
    0.002819526493639261,
    -0.029692462841000786,
    -0.029780391859438114,
    0.008725871111652947,
    0.017778573380757872,
    -0.007802700264208797,
    0.004311595784910627,
    0.06473114111475074,
    0.011936930803775862,
    -0.006784622897401348,
    -0.039834646082334675,
    0.011830945143369924,
    0.008089432058188612,
    -0.01576208998685778,
    0.010453816387393344,
    -0.025295266680924057,
    -0.0016616584646055306,
    -0.041157655652716826,
    -0.0035660593659128303,
    0.02086908250908997,
    -0.018297016999934346,
    0.012903508591961292,
    0.03656283806025932,
    0.042780551041802714,
    -0.01000141941357435,
    0.03720326776287704,
    -0.008544765167676556,
    0.02085929588197855,
    -0.005157763024952199,
    0.021178335075424572,
    -0.01934931601474338,
    -0.018411668562720338,
    0.0024558653470423014,
    0.008699342147874517,
    0.005386505588375751,
    -0.0033303535553825645,
    -0.0018039626484078004,
    0.012472823097204738,
    -0.0033311624015178462,
    0.016488048656877294,
    0.018750538109809752,
    -0.01358251954095566,
    0.00045113855449442435,
    0.009000348666708017,
    -0.018788890300836924,
    -0.01330328673381949,
    0.016281151079598825,
    -0.030586481170750506,
    0.0004569997998263408,
    -0.04041133958721579,
    -0.0004167727774467793,
    -0.008739288585780063,
    -0.012429885633982089,
    0.0017223942917315947,
    -0.029225744686619582,
    0.03897305770565897,
    -0.02807159085020817,
    -0.02621601965059898,
    0.005572608054466242,
    -9.919751363637179e-09,
    -0.013934168644594621,
    -0.026002890869181557,
    -0.016616574297200766,
    -0.008685249746491729,
    -0.015919425900313065,
    -0.04294790808704972,
    0.05264621181711274,
    0.0020237305864908065,
    -0.0008361293436058855,
    -0.01211218257887955,
    0.0109747396512642,
    -0.0058290309345275,
    0.011983768743263195,
    0.037194197072764716,
    -0.01398512207043672,
    0.008712616705869432,
    -0.015748469853277852,
    -0.0009674698796358419,
    -0.014602184974103684,
    0.003411481565100784,
    0.027244949778387564,
    -0.023876509833473312,
    0.00832555378229802,
    0.00913605349789342,
    0.011459980877750001,
    -0.03299804612637906,
    -0.010342258126551087,
    0.023352941668435323,
    -0.008508788396817376,
    0.023346167232639187,
    0.01576636321497519,
    -0.0027272729572673507,
    -0.014969944259127213,
    0.011713636671518873,
    0.01018174935424694,
    0.002078362922821758,
    -0.02135692628146612,
    -0.030065461526132233,
    -0.015778579183401045,
    -0.04074028041423587,
    -0.038795765805753515,
    -0.03798679958697656,
    -0.027971807536373138,
    -0.0033995046740145623,
    0.01611694555334628,
    0.001885369139162981,
    -0.013488608683505248,
    -0.0033786797592991274,
    -0.015906290525635233,
    0.008268773705596037,
    0.010587228562460882,
    -0.0014362011425432253,
    0.029932788290207776,
    0.014827319121223594,
    -0.018086033742773056,
    -0.018013775561213696,
    0.028154457552309706,
    0.0015605933457432772,
    -0.0018323208177425006,
    0.005824398865662719,
    0.02374032028687476,
    0.030579336083723405,
    -0.016398913986046957,
    -0.0019057304202420638
  ],
  "bias": 0.525113598972898,
  "dual_training": {
    "strategy": "staged_selector_finetune_with_scorer_auxiliary",
    "auxiliary_weight": 0.25
  }
}