{
  "framework": "python_fallback_linear",
  "question_dim": 64,
  "frame_dim": 384,
  "input_dim": 448,
  "weights": [
    0.0,
    0.0,
    0.0,
    0.0,
    0.0,
    0.0,
    0.0,
    0.0,
    0.0,
    0.0,
    0.0,
    0.0,
    0.0,
    0.0,
    0.0,
    0.0,
    0.0,
    0.0,
    0.0,
    0.0,
    0.0,
    0.0,
    0.0,
    0.0,
    0.0,
    0.0,
    0.0,
    0.0,
    0.0,
    0.0,
    0.0,
    0.11147880343052563,
    0.0,
    0.0,
    0.0,
    0.0,
    0.0,
    0.0,
    -0.15000556447358251,
    0.0,
    -0.0385267610430569,
    0.0,
    0.0,
    0.0,
    0.11147880343052563,
    -0.15000556447358251,
    0.0,
    -0.0385267610430569,
    0.0,
    0.0,
    0.0,
    0.0,
    -0.11147880343052563,
    0.0,
    0.0,
    0.0,
    0.0,
    0.0,
    0.0,
    0.0,
    0.0,
    0.0,
    0.0,
    0.0,
    0.024141080269371017,
    0.0026525677983835747,
    -0.0045597755571402925,
    0.010409088004938057,
    -0.008841022086916929,
    0.00763208206331452,
    0.0034639467513869976,
    -0.018147702093461327,
    0.01123572138791735,
    0.013058616011275309,
    -0.0004119246434508327,
    -0.025638493648874425,
    0.00886254777022189,
    0.010803307396798462,
    -0.004754012053063248,
    -0.02104738652091983,
    0.0010628151268131966,
    -0.006892035887348487,
    0.00764150111340077,
    0.007295697581758167,
    -0.014154421976685675,
    0.010468695967060331,
    0.0038728750327637817,
    -0.01615477809364319,
    0.0014540407041600896,
    0.009086475610556494,
    -0.003198625757232235,
    -0.0024138266643995206,
    -0.0005472966664706574,
    -0.005043430907233749,
    0.02143309687621882,
    -0.010794416652993378,
    -0.0011269233703124412,
    0.006893621263937859,
    -0.008527031514982788,
    -0.010250614280764188,
    0.0011503927836841695,
    -0.00047228476620909097,
    0.002890190775917934,
    0.01105855172965588,
    -0.018875380360917224,
    -0.00636139813573205,
    0.0072784137627459255,
    0.003428686175489342,
    3.0150321352634337e-05,
    0.007119031194747169,
    -0.012637781356487476,
    -0.01371659798536452,
    0.008926283900082222,
    -0.012572257826680802,
    -0.012635769808436325,
    0.006768300395799829,
    -0.011039507570170852,
    0.014259383633955632,
    0.007795158271141729,
    0.011584474304886313,
    0.004165856131510029,
    -0.009967888317893784,
    0.004633021765112525,
    -0.005928121808653785,
    0.01121155171520005,
    0.002235422412424623,
    0.006988856990672515,
    0.009557233782105415,
    -0.005120315231984451,
    0.017748267848388594,
    -0.021938834601899812,
    -0.0014015422502504028,
    -0.010578307653914733,
    -0.01337595749568417,
    -0.00687212507076462,
    -0.000701400441538232,
    0.011071248794485516,
    -0.003198279699086813,
    0.011066237385340107,
    -0.02081026749612697,
    -0.005273747776446587,
    -0.01287179082771867,
    0.006024472606435337,
    0.0022682799590072527,
    -0.014360679010891041,
    0.0073023445403803755,
    -0.007056629366547162,
    0.0053836406518047945,
    -0.016426667843119754,
    0.0005764992130051185,
    0.0007475383330038794,
    0.003845308229336952,
    -0.02152886465622666,
    -0.014488731100212402,
    0.001153020693514905,
    0.00877008705644263,
    -0.005078511582451099,
    -0.0070611837589790085,
    0.004144357063504111,
    0.017579303911362948,
    0.0005130189081148484,
    0.003275519449534765,
    0.011843528581620065,
    0.014414826189521605,
    -0.00764940156761974,
    0.008443258004966434,
    0.016596888222043343,
    0.013926348627246054,
    -0.02217611009338042,
    -0.016992319378278983,
    0.00724934218597237,
    0.005840326594201674,
    0.0008526556311187622,
    -0.019249771542822865,
    -0.01243359067488423,
    0.0004541260895245899,
    -0.022593513168403564,
    0.004869995707242591,
    -0.005609530574960644,
    -0.00886278682334939,
    0.02509271108696726,
    -0.013430544935294211,
    0.01372683455922983,
    -0.008853847009862793,
    0.01576715365913246,
    0.006564212220082543,
    0.011117521300860706,
    0.020260259022002694,
    -0.005568179804302295,
    0.007504788574520482,
    0.008706297726328768,
    -2.0124821301359003e-33,
    0.007725748981703498,
    -0.012231004965942859,
    0.004573918360007398,
    0.009341440329418022,
    0.04766556985645552,
    0.003319873938600189,
    -0.0031829516434929792,
    0.022629815148486106,
    0.007049944066554435,
    0.013432261502152935,
    0.009414004737138281,
    -0.0115662241459292,
    -0.013495025028201876,
    0.005230553653592021,
    0.013618563062553537,
    0.006220291539160167,
    0.004334220365134672,
    0.020701905981188276,
    -0.01294329677465084,
    0.005784772076738597,
    -0.015014270857395803,
    0.01555235377049224,
    0.010653629421445498,
    0.014777586742037092,
    -0.007961441413050432,
    0.0018717905204823958,
    0.0015816155540414054,
    -0.00288132424263058,
    -0.007855531620236425,
    -0.00033524306203894407,
    -0.004585272640488897,
    0.006497560671530046,
    -0.0065585839471000214,
    -0.010957622142680503,
    -0.020143794294280003,
    -0.007079307012864643,
    -0.010467118163299968,
    0.007577984505332827,
    0.007952045200710295,
    -0.004652640168361299,
    -0.016129830904743965,
    0.010050364027415928,
    0.004107443267614723,
    -0.0019553958273107403,
    -0.0021903744668076513,
    0.018158697899721896,
    0.012459200342938383,
    0.013155596717343204,
    -0.005765096466162551,
    0.012210693287457733,
    -0.004892513010962135,
    -0.0012715393976761777,
    -0.016939466717155904,
    0.01688919643907634,
    -0.017018619804745876,
    -0.006203995120879066,
    -0.0010900733933766867,
    -0.0017928734720425005,
    0.022998104204010127,
    0.0044060477371238894,
    0.01051666706974186,
    0.014506876861194572,
    -0.0089439356084693,
    -0.0029183214051551154,
    0.005425254573506505,
    -0.0015198659881408678,
    0.0033219022775367374,
    -0.005140876459694696,
    0.023692952629477897,
    0.00017476506713842157,
    -0.012499038373163358,
    -0.004341389409385313,
    0.014049557149268935,
    0.0058066332183856545,
    0.003137722303733842,
    0.0006717283345301765,
    -0.01537144446943113,
    -0.015035309147880524,
    -0.021269707189697278,
    -0.004095582955893223,
    0.004776790961063093,
    0.003189230690709398,
    -0.0016938508891390213,
    0.008867954000695615,
    -0.004956877946753133,
    0.001930547764694166,
    -0.005874341179279847,
    -0.001888188378141729,
    -0.01946689643067515,
    0.00012390913618514452,
    -0.025946372955747022,
    0.001726099104490197,
    -0.0045850492251011555,
    -0.005234758726543754,
    -0.00706481014266334,
    7.53803671240972e-34,
    0.0192026326631417,
    -0.014810305119295436,
    -0.028321387490475098,
    0.007336212431534629,
    0.015094926914552817,
    -0.001359611350077058,
    -0.010171050375859018,
    -0.013084741107553068,
    -0.012928427886165548,
    0.013990617388640483,
    0.008945361836290676,
    -0.0012355092388537862,
    0.02415280218079507,
    -0.0013038639733586083,
    0.006400819586925231,
    0.021573003456934345,
    0.028707593466756585,
    -0.0011071359598203898,
    -0.0022492272694371184,
    0.01244352092882493,
    0.01440679857264331,
    0.006108373391027455,
    -0.005668880448698369,
    0.0011226524577938387,
    -0.007118432926823885,
    0.013692765545936323,
    0.0026422460943489956,
    0.0025039882218821303,
    -0.0374766741288434,
    0.0010766616147103085,
    -0.02762337229399471,
    -0.01704679937207726,
    0.007054129923393531,
    0.0051041115091913294,
    0.008041932546290709,
    -0.009864562437741612,
    0.001746663205611891,
    -0.01842258202909559,
    -0.01850093723565651,
    0.005429381495739907,
    0.01103438614104525,
    -0.004847586277982706,
    0.0026327405893082296,
    0.04026093153133438,
    0.007410823918780326,
    -0.004230477286175388,
    -0.024765559070316644,
    0.007347896813698141,
    0.00507244735759581,
    -0.009808763121698129,
    0.006504140866737299,
    -0.015736820012095375,
    -0.0010504411219431288,
    -0.02565180340744526,
    -0.002230017778599738,
    0.01297546502871658,
    -0.011384460802660553,
    0.008010906149059895,
    0.022748057133560227,
    0.026614694584310702,
    -0.006252741854182412,
    0.023109652199743255,
    -0.0052840040933150745,
    0.013005356968064045,
    -0.0031926235150390387,
    0.013139457915563304,
    -0.012011816877623932,
    -0.011462889255060693,
    0.0015573967742267473,
    0.005401736492017977,
    0.0033288063114135067,
    -0.0020708994197533425,
    -0.0011263496697746132,
    0.007768053965966937,
    -0.002080940721771348,
    0.010255419003789535,
    0.011600210946125717,
    -0.008459267979008636,
    0.0003159301966465625,
    0.005541233938624042,
    -0.011688905911915976,
    -0.008291709451894658,
    0.010082574841170118,
    -0.019028633524501473,
    0.0002669023675717625,
    -0.02510549694872348,
    -0.0002422037840916502,
    -0.005438862807973592,
    -0.0077097876982491495,
    0.0010631847589794002,
    -0.01814269361424599,
    0.024215378526092103,
    -0.017420979185559043,
    -0.016296002282353426,
    0.003435238145812905,
    -6.164892885159062e-09,
    -0.008624293827461221,
    -0.016151200704350728,
    -0.010357265460404845,
    -0.005377096676762336,
    -0.009858127647883626,
    -0.02670098736099323,
    0.03276666179185913,
    0.0012500036464762599,
    -0.00048240751533100515,
    -0.007478967047149027,
    0.006817964114906288,
    -0.0035815742037427715,
    0.007464407780920928,
    0.023106396824726348,
    -0.008716659595914045,
    0.005388313474696316,
    -0.009793306112439087,
    -0.0005892791665151992,
    -0.009088703018248002,
    0.002149081975895905,
    0.01698981009943343,
    -0.014845876624456262,
    0.0051654609906848226,
    0.005694668950370061,
    0.007143707129631559,
    -0.020550895828741825,
    -0.006414838373390467,
    0.01454163451949471,
    -0.005279631675445784,
    0.014557212970602786,
    0.00978058292252961,
    -0.0017088743471031938,
    -0.009325328831671394,
    0.007298291531691057,
    0.006318048088668074,
    0.0012434659702685055,
    -0.01328566228138141,
    -0.018703523658934677,
    -0.009822995414833663,
    -0.025356971642795493,
    -0.024143750141218005,
    -0.023600462408614836,
    -0.01741478446598352,
    -0.002162741559030636,
    0.009957311063593287,
    0.0011521328325870567,
    -0.008399443124417028,
    -0.00211142047737571,
    -0.009901943098251516,
    0.005146191074015231,
    0.0065860054087239685,
    -0.0009168351729237215,
    0.018598601180768993,
    0.009199069660559785,
    -0.011250602977321009,
    -0.011222416030710261,
    0.017498830489107185,
    0.0009969300508205392,
    -0.001145651159808832,
    0.003578710464833123,
    0.014753351927708188,
    0.01896935733837139,
    -0.010204047836521414,
    -0.0012405284933410374
  ],
  "bias": 0.32632770460710586
}